{"type":"NeuralNetworkGPU","sizes":[3,3,10],"layers":[{"weights":[],"biases":[]},{"weights":[[-1.9794886112213135,51.119991302490234,-11.838719367980957],[-0.10399141162633896,-18.951658248901367,23.424488067626953],[0.6040860414505005,1.0710362195968628,-47.11772918701172]],"biases":[-7.3166961669921875,-2.4511659145355225,-2.4173903465270996]},{"weights":[[-2.70809268951416,-0.48191922903060913,0.30863434076309204],[2.451179027557373,2.6873788833618164,0.7416926622390747],[-8.321175575256348,-3.795520544052124,6.419598579406738],[-2.7198891639709473,-0.553309440612793,-5.521515846252441],[-3.9682133197784424,-2.5808215141296387,-6.505411148071289],[4.100682258605957,3.852837085723877,8.531481742858887],[0.4931735694408417,-0.8060728311538696,-0.28324347734451294],[-0.5816524624824524,-0.372410386800766,-3.732375383377075],[-1.7149888277053833,-5.326507568359375,-0.926263689994812],[7.899783134460449,3.2736432552337646,-4.042884826660156]],"biases":[-2.1344223022460938,-2.461899518966675,-2.0386288166046143,-1.9364947080612183,-1.7717338800430298,-2.9787776470184326,-2.18217396736145,-1.778748869895935,-1.8626072406768799,-2.5930070877075195]}],"inputLookup":null,"inputLookupLength":0,"outputLookup":{"1":8,"2":2,"3":4,"4":0,"5":1,"6":5,"7":6,"8":9,"9":7,"10":3},"outputLookupLength":10,"options":{"inputSize":0,"outputSize":0,"binaryThresh":0.5,"hiddenLayers":[3]},"trainOpts":{"activation":"sigmoid","iterations":20000,"errorThresh":0.005,"log":true,"logPeriod":10,"leakyReluAlpha":0.01,"learningRate":0.3,"momentum":0.1,"callbackPeriod":10,"timeout":"Infinity","beta1":0.9,"beta2":0.999,"epsilon":1e-8}}