{"type":"NeuralNetworkGPU","sizes":[3,3,10],"layers":[{"weights":[],"biases":[]},{"weights":[[-0.3484189808368683,28.035017013549805,-40.37982940673828],[0.733845055103302,-37.14667892456055,14.31517219543457],[0.345807284116745,-12.028787612915039,-18.900074005126953]],"biases":[-4.95814323425293,-1.1968624591827393,-0.8880982398986816]},{"weights":[[-0.8068798184394836,-0.046647824347019196,0.6750347018241882],[2.4381611347198486,1.5178563594818115,-0.5869430303573608],[-6.862255096435547,-3.6516034603118896,5.03936243057251],[-5.45543098449707,0.41575008630752563,-1.0977072715759277],[-5.166920185089111,-0.6852343678474426,-1.2921557426452637],[8.620466232299805,1.2921379804611206,0.5332140326499939],[1.5514147281646729,-0.09932591766119003,-0.3487423062324524],[-3.8284497261047363,-0.0931238979101181,-0.9324855804443359],[-2.623185396194458,-3.427624464035034,2.559316873550415],[6.0953803062438965,2.0569427013397217,-3.777681827545166]],"biases":[-2.284334659576416,-2.301802158355713,-2.4172065258026123,-2.022054433822632,-1.9430094957351685,-2.6831014156341553,-2.2154862880706787,-1.7447013854980469,-2.24211049079895,-2.150946855545044]}],"inputLookup":null,"inputLookupLength":0,"outputLookup":{"1":8,"2":2,"3":4,"4":0,"5":1,"6":5,"7":6,"8":9,"9":7,"10":3},"outputLookupLength":10,"options":{"inputSize":0,"outputSize":0,"binaryThresh":0.5,"hiddenLayers":[3]},"trainOpts":{"activation":"sigmoid","iterations":20000,"errorThresh":0.005,"log":true,"logPeriod":10,"leakyReluAlpha":0.01,"learningRate":0.3,"momentum":0.1,"callbackPeriod":10,"timeout":"Infinity","beta1":0.9,"beta2":0.999,"epsilon":1e-8}}