{"type":"NeuralNetwork","sizes":[3,3,10],"layers":[{"weights":[],"biases":[]},{"weights":[[0.07990775257349014,-0.020022280514240265,-0.14444513618946075],[0.13961251080036163,-0.09728638082742691,0.05960298702120781],[0.08327829092741013,0.046911124140024185,-0.18712568283081055]],"biases":[0.14768022298812866,-0.1234712079167366,0.03479015827178955]},{"weights":[[0.16784562170505524,-1.2372980117797852,0.018961234018206596],[-0.17115521430969238,-1.05723237991333,-0.11746776103973389],[0.036901190876960754,-1.287500262260437,0.14905016124248505],[0.17301559448242188,-1.1713539361953735,-0.1612195372581482],[-0.12980008125305176,-1.228298544883728,-0.03264593333005905],[-0.11006235331296921,-1.279561996459961,-0.18299317359924316],[0.16152724623680115,-1.1468379497528076,-0.08882176876068115],[-0.19075797498226166,-1.0518219470977783,-0.18880455195903778],[0.05644308030605316,-1.104891061782837,0.08028711378574371],[-0.0174042247235775,-1.384663462638855,0.08060935139656067]],"biases":[-1.0785801410675049,-1.2003172636032104,-1.0011581182479858,-1.0174480676651,-1.0374590158462524,-1.057870626449585,-1.0715925693511963,-1.1295952796936035,-0.7581662535667419,-0.9735242128372192]}],"inputLookup":{"dd":0,"mm":1,"yyyy":2},"inputLookupLength":3,"outputLookup":{"1":0,"2":1,"3":2,"4":3,"5":4,"6":5,"7":6,"8":7,"9":8,"10":9},"outputLookupLength":10,"options":{"inputSize":0,"outputSize":0,"binaryThresh":0.5},"trainOpts":{"activation":"sigmoid","iterations":20000,"errorThresh":0.005,"log":true,"logPeriod":10,"leakyReluAlpha":0.01,"learningRate":0.3,"momentum":0.1,"callbackPeriod":10,"timeout":"Infinity","beta1":0.9,"beta2":0.999,"epsilon":1e-8}}