{"type":"NeuralNetwork","sizes":[3,3,49],"layers":[{"weights":[],"biases":[]},{"weights":[[0.16028845310211182,0.1367502361536026,0.10855875164270401],[0.11514724791049957,0.19122032821178436,0.18220876157283783],[-0.14780597388744354,0.15416866540908813,-0.12218566238880157]],"biases":[0.19564121961593628,0.16655506193637848,-0.005457810591906309]},{"weights":[[-0.7784566879272461,-0.8158055543899536,-0.08568483591079712],[-0.8622905015945435,-0.7363179922103882,0.06195585057139397],[-0.9841489791870117,-0.941004753112793,0.06379856169223785],[-0.7835881114006042,-0.8979439735412598,-0.046287816017866135],[-0.7304101586341858,-0.7583073973655701,0.15832361578941345],[-0.7528547048568726,-0.5385705232620239,0.14554725587368011],[-0.6281577348709106,-0.6679999828338623,0.0276163462549448],[-0.7207138538360596,-1.0302484035491943,0.08948352187871933],[-0.7677465677261353,-0.5949988961219788,0.012997686862945557],[-0.8740881085395813,-0.8199752569198608,-0.11964311450719833],[-0.8496538996696472,-0.7711605429649353,-0.13425993919372559],[-0.799322247505188,-0.7776322364807129,-0.008421836420893669],[-0.8659332394599915,-0.7259775400161743,0.07184047996997833],[-0.8878080248832703,-0.7939659357070923,0.07026667147874832],[-0.7489388585090637,-0.7784790396690369,0.044465966522693634],[-0.7505505084991455,-0.7037400007247925,0.07108371704816818],[-0.6041504144668579,-0.7735321521759033,0.03988046199083328],[-0.7711512446403503,-0.9226676821708679,-0.06756138056516647],[-0.7788224816322327,-0.7783934473991394,0.1761029213666916],[-0.7720688581466675,-0.8779280185699463,-0.15574148297309875],[-0.9840893149375916,-0.6324406862258911,0.00035164051223546267],[-0.66153883934021,-0.7854945659637451,0.017473755404353142],[-0.7296727895736694,-0.811445951461792,0.13134172558784485],[-0.8060682415962219,-0.6247461438179016,0.18432481586933136],[-0.7208796143531799,-0.7889885306358337,0.12409400194883347],[-0.5530900359153748,-0.7374821305274963,0.14153267443180084],[-0.9195396304130554,-0.625774621963501,-0.1987842619419098],[-0.6557727456092834,-0.7735498547554016,-0.1391638070344925],[-0.8643771409988403,-0.6284352540969849,0.15837566554546356],[-0.5358700156211853,-0.8208751678466797,0.0980803593993187],[-0.7512771487236023,-0.6377291083335876,-0.1868535876274109],[-0.9007543921470642,-0.8150402903556824,0.03684324398636818],[-0.8180853724479675,-0.7210047841072083,-0.04731249064207077],[-0.8894960880279541,-0.8149675130844116,0.02574670873582363],[-0.6329598426818848,-0.7549054026603699,0.11217644065618515],[-0.7425186634063721,-0.9146068096160889,-0.01305436622351408],[-0.8789538741111755,-0.7758830189704895,0.13071516156196594],[-0.66202712059021,-0.7520056962966919,-0.1563790887594223],[-0.7484480142593384,-0.7063385248184204,0.08445614576339722],[-0.7855994701385498,-0.7362586259841919,0.12130693346261978],[-0.7045434713363647,-0.7225711345672607,0.10525602102279663],[-0.6284942626953125,-0.7107416391372681,0.07223176956176758],[-0.7961385846138,-0.8202325701713562,0.09117459505796432],[-0.7231241464614868,-0.8195515871047974,-0.032522134482860565],[-0.7643120288848877,-0.878166139125824,0.19425848126411438],[-0.8527113199234009,-0.7571651339530945,-0.1440281718969345],[-0.8077656626701355,-0.9391586184501648,0.06138758733868599],[-0.7424761056900024,-0.6270879507064819,-0.10009028762578964],[-0.858008861541748,-0.6654316186904907,-0.14608260989189148]],"biases":[-0.895536482334137,-0.8614578247070312,-0.6181339025497437,-0.6017463803291321,-0.6064697504043579,-0.8149685859680176,-0.5936192870140076,-0.6438978314399719,-0.8033918738365173,-0.4725266993045807,-0.6993359923362732,-0.6771224737167358,-0.6983452439308167,-0.5204063057899475,-0.7041712999343872,-0.8224178552627563,-0.6391016244888306,-0.8567559719085693,-0.5928633809089661,-0.8488337993621826,-0.8041577339172363,-0.5116835832595825,-0.6231812834739685,-0.5955432653427124,-0.7098772525787354,-0.5439177751541138,-0.794307291507721,-0.6952546834945679,-0.6188399195671082,-0.5835871696472168,-0.7651760578155518,-0.6025687456130981,-0.7321017384529114,-0.8492041826248169,-0.6214220523834229,-0.7692281007766724,-0.6801770329475403,-0.5772015452384949,-0.8301511406898499,-0.820153534412384,-0.7510830163955688,-0.631500244140625,-0.8118688464164734,-0.4420090317726135,-0.7449452877044678,-0.7700739502906799,-0.5551480650901794,-0.4722850024700165,-0.7087265849113464]}],"inputLookup":{"dd":0,"mm":1,"yyyy":2},"inputLookupLength":3,"outputLookup":{"1":0,"2":1,"3":2,"4":3,"5":4,"6":5,"7":6,"8":7,"9":8,"10":9,"11":10,"12":11,"13":12,"14":13,"15":14,"16":15,"17":16,"18":17,"19":18,"20":19,"21":20,"22":21,"23":22,"24":23,"25":24,"26":25,"27":26,"28":27,"29":28,"30":29,"31":30,"32":31,"33":32,"34":33,"35":34,"36":35,"37":36,"38":37,"39":38,"40":39,"41":40,"42":41,"43":42,"44":43,"45":44,"46":45,"47":46,"48":47,"49":48},"outputLookupLength":49,"options":{"inputSize":0,"outputSize":0,"binaryThresh":0.5},"trainOpts":{"activation":"sigmoid","iterations":20000,"errorThresh":0.005,"log":true,"logPeriod":10,"leakyReluAlpha":0.01,"learningRate":0.3,"momentum":0.1,"callbackPeriod":10,"timeout":"Infinity","beta1":0.9,"beta2":0.999,"epsilon":1e-8}}
