{"type":"NeuralNetwork","sizes":[3,3,49],"layers":[{"weights":[],"biases":[]},{"weights":[[0.03598923981189728,-0.09800361096858978,-0.039107196033000946],[-0.12156451493501663,-0.02059742622077465,0.3388771414756775],[-0.177538201212883,-0.16870053112506866,0.09843204915523529]],"biases":[0.19557131826877594,-0.12430181354284286,0.08401143550872803]},{"weights":[[-0.10528469830751419,-0.9318261742591858,-0.9368917346000671],[0.0008150864159688354,-0.781505823135376,-0.9380675554275513],[0.0630912184715271,-0.8866702318191528,-0.9052814245223999],[0.11242684721946716,-0.8705943822860718,-0.8176829814910889],[0.13681869208812714,-0.5652962923049927,-0.6873342990875244],[-0.17969582974910736,-0.6712959408760071,-0.7047522664070129],[0.08433888852596283,-0.6348039507865906,-0.6369026303291321],[-0.16791768372058868,-0.9081947207450867,-0.8315055966377258],[0.15238700807094574,-0.6412755250930786,-0.8637728095054626],[0.17315226793289185,-0.7161840200424194,-0.9281760454177856],[0.07606703042984009,-0.7771286368370056,-0.8316057324409485],[-0.07939179986715317,-0.7253623008728027,-0.7930676937103271],[-0.08636696636676788,-0.6425793766975403,-0.8671032786369324],[0.15083511173725128,-0.986472487449646,-0.6220555305480957],[-0.19630171358585358,-0.6607945561408997,-0.7870728969573975],[0.12736649811267853,-0.7123467922210693,-0.711084246635437],[0.007242091465741396,-0.7018389701843262,-0.545133650302887],[-0.05837331339716911,-0.861177921295166,-0.7442938089370728],[0.011095399037003517,-0.7895760536193848,-0.7401630878448486],[-0.11095957458019257,-0.8571609854698181,-0.9464122653007507],[0.19953250885009766,-0.6598626375198364,-1.0230686664581299],[0.1160183921456337,-0.6111485958099365,-0.5591610670089722],[-0.16075482964515686,-0.6600954532623291,-0.7602038979530334],[0.06291783601045609,-0.7080075740814209,-0.7406365871429443],[-0.051083166152238846,-0.743176281452179,-0.9403954148292542],[0.10928995162248611,-0.7793314456939697,-0.48998624086380005],[0.01752592623233795,-0.8287408351898193,-0.7155060768127441],[-0.13592015206813812,-0.8398401141166687,-0.6170135140419006],[0.19892433285713196,-0.6125379800796509,-0.6587550640106201],[-0.16237415373325348,-0.7099133133888245,-0.700713574886322],[-0.11912235617637634,-0.6490293741226196,-0.75790935754776],[-0.13824577629566193,-0.663180410861969,-0.9302569031715393],[0.05547187104821205,-0.7446470856666565,-0.8181316256523132],[-0.13435415923595428,-0.7396280765533447,-0.95147705078125],[0.07831688970327377,-0.7166544198989868,-0.7295861840248108],[0.13960260152816772,-0.8205614686012268,-0.8192546963691711],[-0.11712641268968582,-0.8898279666900635,-0.8270320892333984],[-0.056195151060819626,-0.8130604028701782,-0.48766985535621643],[0.12400179356336594,-0.6850453615188599,-0.733401894569397],[0.13654765486717224,-0.7909175753593445,-0.7245161533355713],[-0.03915227949619293,-0.6700053215026855,-0.8053006529808044],[-0.16678990423679352,-0.5921851396560669,-0.9198116064071655],[-0.0024702143855392933,-0.7927587628364563,-0.8482206463813782],[-0.08543671667575836,-0.7560239434242249,-0.6995550394058228],[-0.14342990517616272,-0.8794805407524109,-0.8999202251434326],[0.054730020463466644,-0.8490076065063477,-0.8485589027404785],[-0.08359444886445999,-0.8822033405303955,-0.711403489112854],[0.05708872154355049,-0.754140317440033,-0.5247952938079834],[-0.15551917254924774,-0.6740788221359253,-0.7065978050231934]],"biases":[-0.6210808157920837,-0.7404929399490356,-0.7513357996940613,-0.5950011014938354,-0.8425567150115967,-0.7303456664085388,-0.6180704236030579,-0.6551592946052551,-0.6610890030860901,-0.5222302079200745,-0.7114160656929016,-0.7356469631195068,-0.780573308467865,-0.5936524271965027,-0.7837218046188354,-0.853277325630188,-0.7698115706443787,-0.9451031684875488,-0.6203401684761047,-0.6952574253082275,-0.7377561926841736,-0.7884073257446289,-0.744001030921936,-0.5777134895324707,-0.5361738801002502,-0.5651721954345703,-0.7953746318817139,-0.6677236557006836,-0.8403592705726624,-0.5297058820724487,-0.7472437024116516,-0.7249260544776917,-0.7084131836891174,-0.8625626564025879,-0.5630466938018799,-0.7865374088287354,-0.6181538701057434,-0.6905041337013245,-0.8664904236793518,-0.8265780210494995,-0.7028915882110596,-0.45873939990997314,-0.7872605919837952,-0.5291059613227844,-0.6080226898193359,-0.6823839545249939,-0.708465576171875,-0.5629132390022278,-0.8514904379844666]}],"inputLookup":{"dd":0,"mm":1,"yyyy":2},"inputLookupLength":3,"outputLookup":{"1":0,"2":1,"3":2,"4":3,"5":4,"6":5,"7":6,"8":7,"9":8,"10":9,"11":10,"12":11,"13":12,"14":13,"15":14,"16":15,"17":16,"18":17,"19":18,"20":19,"21":20,"22":21,"23":22,"24":23,"25":24,"26":25,"27":26,"28":27,"29":28,"30":29,"31":30,"32":31,"33":32,"34":33,"35":34,"36":35,"37":36,"38":37,"39":38,"40":39,"41":40,"42":41,"43":42,"44":43,"45":44,"46":45,"47":46,"48":47,"49":48},"outputLookupLength":49,"options":{"inputSize":0,"outputSize":0,"binaryThresh":0.5},"trainOpts":{"activation":"sigmoid","iterations":20000,"errorThresh":0.005,"log":true,"logPeriod":10,"leakyReluAlpha":0.01,"learningRate":0.3,"momentum":0.1,"callbackPeriod":10,"timeout":"Infinity","beta1":0.9,"beta2":0.999,"epsilon":1e-8}}