{"type":"NeuralNetworkGPU","sizes":[3,9,49],"layers":[{"weights":[],"biases":[]},{"weights":[[-2.7658963203430176,63.05726623535156,22.548145294189453],[-1.1221816539764404,-1.7653419971466064,0.9042062759399414],[-1.3329211473464966,-22.313234329223633,6.25364351272583],[-1.4856659173965454,0.9889894127845764,55.11953353881836],[-0.4359981417655945,83.75384521484375,-57.366695404052734],[-2.2518489360809326,-6.73781681060791,-58.68583679199219],[-3.951026439666748,-57.45516586303711,48.13039016723633],[-0.027696462348103523,-70.61109924316406,-46.04850387573242],[-0.7515787482261658,34.33986282348633,-32.45088577270508]],"biases":[-10.19608211517334,-5.101304531097412,-1.5512261390686035,-5.4736008644104,-10.788656234741211,-0.9229458570480347,-3.157287359237671,-0.5077137351036072,-3.83697509765625]},{"weights":[[-2.2419662475585938,-0.8860519528388977,-1.2738019227981567,-0.37384241819381714,-12.200250625610352,-2.3183248043060303,0.6054287552833557,1.30764639377594,2.776184558868408],[-1.681002140045166,-0.656803548336029,1.882179617881775,-1.7067797183990479,1.018758773803711,-1.628220558166504,0.40268874168395996,-1.5745738744735718,0.546164333820343],[1.428351879119873,-0.6866515874862671,1.442095398902893,-0.14469696581363678,-5.028921604156494,1.8458884954452515,-4.571355819702148,-4.351797580718994,1.116235613822937],[-6.6768903732299805,-0.7883801460266113,-2.3216423988342285,4.686197280883789,3.5925633907318115,1.502668857574463,-0.296005517244339,6.043328285217285,0.06357395648956299],[-3.971740484237671,-0.7399988770484924,1.8690690994262695,7.0208740234375,-3.1661458015441895,3.6338999271392822,-1.134205937385559,0.2758113741874695,2.622833490371704],[3.1519296169281006,-1.2207365036010742,-0.2700377106666565,-3.473870277404785,3.459996223449707,-2.4537253379821777,-1.6989392042160034,-0.9133325815200806,-1.3109747171401978],[3.914824962615967,-0.7531411051750183,2.0622220039367676,-4.579653263092041,0.8958064913749695,-4.879575729370117,-10.086593627929688,3.415719985961914,-0.4376974403858185],[-3.930473566055298,-1.1303998231887817,1.2272284030914307,1.3747984170913696,-5.472716331481934,-0.986171305179596,3.8060033321380615,6.659097194671631,4.081718921661377],[-0.37613385915756226,-0.5093281865119934,-0.4172632098197937,0.8867496848106384,2.343825340270996,1.6033525466918945,-2.43758487701416,-0.2674235999584198,-1.544830560684204],[1.8318471908569336,-0.7449843883514404,1.165993571281433,-0.987423837184906,-1.2468212842941284,-2.374502420425415,-1.769012212753296,-5.041101455688477,-0.06284092366695404],[-7.912448406219482,-0.6564493775367737,-0.2099611461162567,-0.44112077355384827,-1.7489328384399414,-0.3499080240726471,-3.6431729793548584,-3.21996808052063,0.2710399031639099],[-2.6445505619049072,-0.577593982219696,-2.8305208683013916,-6.89357328414917,-4.021430015563965,-7.207800388336182,3.331806182861328,3.2725448608398438,0.09974154829978943],[0.43855923414230347,-1.07828688621521,-1.419612169265747,-1.298527717590332,4.42459774017334,3.702810287475586,3.795375347137451,-8.86240291595459,-1.688786268234253],[6.198258876800537,-0.8827939629554749,2.839954376220703,-2.7593750953674316,0.9275100231170654,0.8363509178161621,-0.8155505657196045,0.11610321700572968,-0.3402893543243408],[-3.4554007053375244,-0.6955927014350891,3.43674635887146,0.8058214783668518,-10.578826904296875,-2.26963472366333,0.06809615343809128,2.834268808364868,4.886743068695068],[-0.061671182513237,-0.6795867085456848,-2.6901800632476807,1.1667298078536987,6.287479400634766,6.248600959777832,3.120784282684326,-5.72083044052124,-3.031090497970581],[6.780019283294678,-0.5772145986557007,4.603452682495117,0.6986371278762817,0.5908219814300537,5.209173679351807,0.20564188063144684,-3.0010712146759033,0.6465493440628052],[0.2243388444185257,-0.5869114398956299,-1.371910572052002,-0.16206534206867218,-17.161052703857422,-2.320347785949707,1.8613277673721313,0.17559748888015747,2.894509792327881],[-2.689079761505127,-0.9088723659515381,-2.8025782108306885,-2.7844924926757812,3.5213449001312256,-3.9338483810424805,-1.5322694778442383,2.8015944957733154,-1.6610345840454102],[-1.987707257270813,-1.2746766805648804,0.10222925990819931,0.46014243364334106,-3.886876106262207,-3.8504202365875244,-6.439755916595459,6.738983154296875,2.284736394882202],[-2.8664050102233887,-0.9570205211639404,0.7896983027458191,1.7011399269104004,0.39709585905075073,-2.714189052581787,-7.404136657714844,4.575647830963135,1.5519343614578247],[-2.549161672592163,-0.1743926703929901,1.6331698894500732,0.7068356275558472,4.881263732910156,-1.5797653198242188,-10.52822208404541,1.180586814880371,-1.6513750553131104],[-1.45951509475708,-0.04030682146549225,2.128708839416504,3.407390832901001,2.5858049392700195,3.7605550289154053,-8.342644691467285,-3.912240743637085,-1.2237656116485596],[-4.765368938446045,-0.9337835907936096,0.47627779841423035,5.833639144897461,-3.6981148719787598,2.3091750144958496,1.0359464883804321,3.4976272583007812,3.2585561275482178],[0.818668007850647,-0.6401132345199585,-1.09553861618042,-2.3680930137634277,6.105608940124512,1.1005468368530273,0.29173678159713745,-5.0467143058776855,-2.2665135860443115],[-0.37218236923217773,-0.34604328870773315,-1.4544044733047485,-1.3467793464660645,-2.241323232650757,-0.07518573850393295,2.8350648880004883,1.3580718040466309,-0.4700932502746582],[-0.590006947517395,-0.6180679798126221,-2.957571268081665,-3.001786947250366,0.8828141093254089,-0.06041991710662842,-1.2278035879135132,-0.012018028646707535,-3.034593343734741],[-3.4395172595977783,-0.6156668066978455,3.256373405456543,1.2975314855575562,-4.327249050140381,2.6726624965667725,-3.253899335861206,-2.939837694168091,1.3557883501052856],[3.6292598247528076,-0.900900661945343,0.6721985936164856,2.554863929748535,-2.096536159515381,3.2942614555358887,0.6420748233795166,-4.334594249725342,0.34074506163597107],[-3.932896137237549,-0.08691814541816711,0.6163264513015747,0.8932223320007324,-4.0239458084106445,1.3855903148651123,1.6388301849365234,-2.7622549533843994,-0.24472244083881378],[3.0729641914367676,-1.0843899250030518,-0.5265916585922241,0.3364690840244293,-3.910977840423584,2.9682016372680664,3.7505531311035156,-2.664003610610962,0.6771846413612366],[1.5714291334152222,-0.860211193561554,-2.7761991024017334,2.773944616317749,3.759324073791504,-1.2848188877105713,2.8713719844818115,3.5919878482818604,-1.2982652187347412],[-0.6350052952766418,-0.8562731742858887,0.1674126535654068,-1.7207839488983154,-2.2178266048431396,-3.3574676513671875,0.7027180790901184,-0.9426833987236023,0.643261194229126],[-1.2247810363769531,-0.8210880160331726,0.39273667335510254,-1.9611515998840332,-5.845950126647949,-3.9786601066589355,1.7188845872879028,3.9712119102478027,2.2692489624023438],[-1.754762053489685,-0.439725399017334,-0.09339086711406708,-3.538905382156372,-1.891558051109314,-9.541223526000977,2.314539909362793,8.818416595458984,2.0079591274261475],[-0.16951915621757507,-0.06592363119125366,1.3496630191802979,3.880425453186035,0.8310458064079285,2.680023670196533,-4.38842248916626,-3.5247690677642822,-0.9041033387184143],[3.0003018379211426,0.07147374749183655,6.614954471588135,-2.0181655883789062,0.014779765158891678,-2.825970411300659,-2.183335304260254,-5.600521564483643,-0.34121039509773254],[3.0681235790252686,-0.4094822406768799,4.7535719871521,4.433259010314941,-4.702841758728027,2.05422306060791,-0.8515620231628418,-6.805146217346191,1.976568579673767],[-0.6059811115264893,-1.0584608316421509,1.49663507938385,-1.130043864250183,0.03091503120958805,-5.533939838409424,1.3077504634857178,3.981588363647461,2.764397144317627],[7.004589557647705,-0.3933626413345337,1.1245465278625488,-3.157736301422119,-1.7062578201293945,0.7795366048812866,0.6092249155044556,3.3682861328125,-0.7233160734176636],[1.4506343603134155,-0.6992757320404053,-1.2846380472183228,-3.738344192504883,2.0297982692718506,-0.13164594769477844,0.7238384485244751,-4.506028652191162,-1.94496750831604],[0.23257219791412354,-0.7238197326660156,-4.475175857543945,-8.286826133728027,12.223834991455078,-0.0898582860827446,6.859642505645752,0.4045218229293823,-5.123636245727539],[6.452706336975098,-0.5386922359466553,3.1516363620758057,-2.343892812728882,4.180155277252197,-0.06699161231517792,0.8277159929275513,-1.318183183670044,-1.270818829536438],[0.13199786841869354,-1.003251075744629,-1.9364558458328247,0.801799476146698,0.7054721713066101,2.5313785076141357,3.4535133838653564,-1.223702073097229,-0.9459144473075867],[-6.1793084144592285,-0.8976996541023254,-0.16608452796936035,6.589319705963135,3.4711716175079346,4.543920040130615,-1.3750154972076416,-8.233509063720703,0.06043214723467827],[5.446041107177734,-0.9867488741874695,-1.8263652324676514,0.366818368434906,1.9491621255874634,5.133216857910156,0.021985983476042747,-0.4368201196193695,-1.8655965328216553],[-3.1829893589019775,-0.6042688488960266,-0.7753575444221497,2.970407724380493,5.285355091094971,-1.7632994651794434,-2.9092559814453125,0.6232870817184448,-1.024583339691162],[-4.352124214172363,-1.1389555931091309,-2.349268674850464,5.94395637512207,-2.1632208824157715,2.035245180130005,-2.0245485305786133,4.328073978424072,1.4882264137268066],[3.013972043991089,-1.2737537622451782,-4.535953521728516,-2.8304455280303955,0.46234816312789917,1.2210718393325806,6.511372089385986,-9.13532543182373,-1.3521727323532104]],"biases":[-2.099752187728882,-2.2640135288238525,-2.260096549987793,-2.3504526615142822,-2.870997428894043,-1.9678415060043335,-2.0673372745513916,-2.5088648796081543,-2.159050226211548,-2.0331525802612305,-2.0302741527557373,-1.361015796661377,-2.068244695663452,-2.486485481262207,-2.709742307662964,-2.2726545333862305,-2.7324297428131104,-1.9078257083892822,-1.7129433155059814,-2.015024185180664,-2.1633572578430176,-2.03527569770813,-2.2585484981536865,-2.9072301387786865,-1.9439365863800049,-2.0421276092529297,-1.7188687324523926,-2.546952962875366,-2.333956003189087,-2.072204351425171,-2.5421106815338135,-2.2379181385040283,-1.814705491065979,-2.2307989597320557,-1.8913499116897583,-2.2529542446136475,-2.413763999938965,-2.9656553268432617,-2.2993524074554443,-2.2855029106140137,-1.6089181900024414,-1.5665056705474854,-2.492220163345337,-2.135411024093628,-2.3061304092407227,-2.0785086154937744,-2.1263015270233154,-2.228994369506836,-1.83026921749115]}],"inputLookup":null,"inputLookupLength":0,"outputLookup":{"1":23,"2":37,"3":10,"4":0,"5":29,"6":38,"7":47,"8":26,"9":35,"10":39,"11":13,"12":48,"13":43,"14":1,"15":20,"16":5,"17":11,"18":30,"19":33,"20":6,"21":27,"22":17,"23":24,"24":28,"25":18,"26":40,"27":46,"28":2,"29":21,"30":34,"31":7,"32":3,"33":8,"34":42,"35":19,"36":41,"37":4,"38":45,"39":31,"40":14,"41":22,"42":44,"43":15,"44":32,"45":36,"46":9,"47":12,"48":16,"49":25},"outputLookupLength":49,"options":{"inputSize":0,"outputSize":0,"binaryThresh":0.5,"hiddenLayers":[9]},"trainOpts":{"activation":"sigmoid","iterations":20000,"errorThresh":0.005,"log":true,"logPeriod":10,"leakyReluAlpha":0.01,"learningRate":0.3,"momentum":0.1,"callbackPeriod":10,"timeout":"Infinity","beta1":0.9,"beta2":0.999,"epsilon":1e-8}}